digraph Tree {
node [shape=box] ;
0 [label="X[6] <= 0.5\ngini = 0.5\nsamples = 381109\nvalue = [190554.5, 190554.5]"] ;
1 [label="gini = 0.07\nsamples = 188696\nvalue = [106967.268, 4006.091]"] ;
0 -> 1 [labeldistance=2.5, labelangle=45, headlabel="True"] ;
2 [label="X[4] <= 0.5\ngini = 0.427\nsamples = 192413\nvalue = [83587.232, 186548.409]"] ;
0 -> 2 [labeldistance=2.5, labelangle=-45, headlabel="False"] ;
3 [label="X[1] <= 26.5\ngini = 0.416\nsamples = 182491\nvalue = [77982.269, 186197.57]"] ;
2 -> 3 ;
4 [label="X[8] <= 158.5\ngini = 0.5\nsamples = 35779\nvalue = [17987.054, 17191.108]"] ;
3 -> 4 ;
5 [label="X[8] <= 150.5\ngini = 0.499\nsamples = 28055\nvalue = [13848.863, 15306.369]"] ;
4 -> 5 ;
6 [label="gini = 0.448\nsamples = 4082\nvalue = [1827.482, 3569.582]"] ;
5 -> 6 ;
7 [label="X[0] <= 0.5\ngini = 0.5\nsamples = 23973\nvalue = [12021.381, 11736.786]"] ;
5 -> 7 ;
8 [label="X[3] <= 27.5\ngini = 0.495\nsamples = 13074\nvalue = [6687.093, 5462.481]"] ;
7 -> 8 ;
9 [label="gini = 0.486\nsamples = 6179\nvalue = [3200.231, 2296.771]"] ;
8 -> 9 ;
10 [label="gini = 0.499\nsamples = 6895\nvalue = [3486.861, 3165.71]"] ;
8 -> 10 ;
11 [label="X[1] <= 22.5\ngini = 0.497\nsamples = 10899\nvalue = [5334.288, 6274.306]"] ;
7 -> 11 ;
12 [label="gini = 0.5\nsamples = 3913\nvalue = [1963.675, 1905.137]"] ;
11 -> 12 ;
13 [label="X[9] <= 153.5\ngini = 0.492\nsamples = 6986\nvalue = [3370.614, 4369.169]"] ;
11 -> 13 ;
14 [label="gini = 0.493\nsamples = 3571\nvalue = [1727.76, 2198.863]"] ;
13 -> 14 ;
15 [label="gini = 0.49\nsamples = 3415\nvalue = [1642.854, 2170.306]"] ;
13 -> 15 ;
16 [label="gini = 0.43\nsamples = 7724\nvalue = [4138.191, 1884.739]"] ;
4 -> 16 ;
17 [label="X[1] <= 59.5\ngini = 0.387\nsamples = 146712\nvalue = [59995.215, 169006.462]"] ;
3 -> 17 ;
18 [label="X[1] <= 50.5\ngini = 0.364\nsamples = 119686\nvalue = [47227.342, 150159.067]"] ;
17 -> 18 ;
19 [label="X[8] <= 124.5\ngini = 0.352\nsamples = 92468\nvalue = [35794.038, 120974.163]"] ;
18 -> 19 ;
20 [label="X[1] <= 36.5\ngini = 0.339\nsamples = 68465\nvalue = [25898.166, 93898.371]"] ;
19 -> 20 ;
21 [label="X[5] <= 1.5\ngini = 0.286\nsamples = 11999\nvalue = [4097.732, 19614.345]"] ;
20 -> 21 ;
22 [label="gini = 0.262\nsamples = 3496\nvalue = [1130.566, 6168.238]"] ;
21 -> 22 ;
23 [label="X[0] <= 0.5\ngini = 0.296\nsamples = 8503\nvalue = [2967.166, 13446.106]"] ;
21 -> 23 ;
24 [label="gini = 0.315\nsamples = 3672\nvalue = [1329.441, 5462.481]"] ;
23 -> 24 ;
25 [label="X[1] <= 34.5\ngini = 0.282\nsamples = 4831\nvalue = [1637.725, 7983.626]"] ;
23 -> 25 ;
26 [label="gini = 0.27\nsamples = 2611\nvalue = [861.601, 4483.395]"] ;
25 -> 26 ;
27 [label="gini = 0.297\nsamples = 2220\nvalue = [776.124, 3500.23]"] ;
25 -> 27 ;
28 [label="X[8] <= 28.5\ngini = 0.351\nsamples = 56466\nvalue = [21800.435, 74284.027]"] ;
20 -> 28 ;
29 [label="X[5] <= 3.5\ngini = 0.328\nsamples = 26568\nvalue = [9854.843, 37833.492]"] ;
28 -> 29 ;
30 [label="X[8] <= 25.5\ngini = 0.338\nsamples = 23800\nvalue = [8983.555, 32778.964]"] ;
29 -> 30 ;
31 [label="gini = 0.4\nsamples = 3352\nvalue = [1399.531, 3655.252]"] ;
30 -> 31 ;
32 [label="X[7] <= 16400.5\ngini = 0.328\nsamples = 20448\nvalue = [7584.023, 29123.712]"] ;
30 -> 32 ;
33 [label="gini = 0.37\nsamples = 2859\nvalue = [1139.683, 3504.31]"] ;
32 -> 33 ;
34 [label="X[7] <= 37140.5\ngini = 0.321\nsamples = 17589\nvalue = [6444.34, 25619.402]"] ;
32 -> 34 ;
35 [label="X[1] <= 42.5\ngini = 0.331\nsamples = 8815\nvalue = [3290.266, 12405.828]"] ;
34 -> 35 ;
36 [label="gini = 0.314\nsamples = 3030\nvalue = [1095.236, 4520.111]"] ;
35 -> 36 ;
37 [label="X[9] <= 164.5\ngini = 0.341\nsamples = 5785\nvalue = [2195.03, 7885.717]"] ;
35 -> 37 ;
38 [label="gini = 0.345\nsamples = 3121\nvalue = [1192.679, 4193.749]"] ;
37 -> 38 ;
39 [label="gini = 0.336\nsamples = 2664\nvalue = [1002.352, 3691.968]"] ;
37 -> 39 ;
40 [label="X[9] <= 138.5\ngini = 0.311\nsamples = 8774\nvalue = [3154.074, 13213.574]"] ;
34 -> 40 ;
41 [label="gini = 0.321\nsamples = 3901\nvalue = [1428.593, 5686.854]"] ;
40 -> 41 ;
42 [label="X[9] <= 228.5\ngini = 0.303\nsamples = 4873\nvalue = [1725.481, 7526.719]"] ;
40 -> 42 ;
43 [label="gini = 0.293\nsamples = 2752\nvalue = [953.915, 4397.725]"] ;
42 -> 43 ;
44 [label="gini = 0.317\nsamples = 2121\nvalue = [771.566, 3128.994]"] ;
42 -> 44 ;
45 [label="gini = 0.251\nsamples = 2768\nvalue = [871.288, 5054.528]"] ;
29 -> 45 ;
46 [label="X[1] <= 40.5\ngini = 0.372\nsamples = 29898\nvalue = [11945.592, 36450.534]"] ;
28 -> 46 ;
47 [label="X[9] <= 196.5\ngini = 0.341\nsamples = 7813\nvalue = [2967.736, 10627.156]"] ;
46 -> 47 ;
48 [label="X[7] <= 31986.5\ngini = 0.353\nsamples = 5045\nvalue = [1954.557, 6588.429]"] ;
47 -> 48 ;
49 [label="gini = 0.365\nsamples = 2326\nvalue = [919.725, 2904.62]"] ;
48 -> 49 ;
50 [label="gini = 0.342\nsamples = 2719\nvalue = [1034.833, 3683.809]"] ;
48 -> 50 ;
51 [label="gini = 0.321\nsamples = 2768\nvalue = [1013.179, 4038.727]"] ;
47 -> 51 ;
52 [label="X[3] <= 9.5\ngini = 0.383\nsamples = 22085\nvalue = [8977.856, 25823.378]"] ;
46 -> 52 ;
53 [label="gini = 0.416\nsamples = 3260\nvalue = [1392.693, 3328.89]"] ;
52 -> 53 ;
54 [label="X[1] <= 48.5\ngini = 0.377\nsamples = 18825\nvalue = [7585.163, 22494.488]"] ;
52 -> 54 ;
55 [label="X[7] <= 22254.0\ngini = 0.372\nsamples = 16044\nvalue = [6410.719, 19557.231]"] ;
54 -> 55 ;
56 [label="gini = 0.392\nsamples = 2498\nvalue = [1029.704, 2818.95]"] ;
55 -> 56 ;
57 [label="X[1] <= 44.5\ngini = 0.368\nsamples = 13546\nvalue = [5381.015, 16738.281]"] ;
55 -> 57 ;
58 [label="X[9] <= 205.5\ngini = 0.362\nsamples = 7400\nvalue = [2909.042, 9362.504]"] ;
57 -> 58 ;
59 [label="X[7] <= 36683.0\ngini = 0.367\nsamples = 5044\nvalue = [1999.575, 6262.067]"] ;
58 -> 59 ;
60 [label="gini = 0.364\nsamples = 2696\nvalue = [1063.325, 3386.004]"] ;
59 -> 60 ;
61 [label="gini = 0.371\nsamples = 2348\nvalue = [936.25, 2876.063]"] ;
59 -> 61 ;
62 [label="gini = 0.351\nsamples = 2356\nvalue = [909.467, 3100.437]"] ;
58 -> 62 ;
63 [label="X[9] <= 151.5\ngini = 0.376\nsamples = 6146\nvalue = [2471.973, 7375.777]"] ;
57 -> 63 ;
64 [label="gini = 0.365\nsamples = 3010\nvalue = [1189.83, 3761.32]"] ;
63 -> 64 ;
65 [label="gini = 0.387\nsamples = 3136\nvalue = [1282.144, 3614.457]"] ;
63 -> 65 ;
66 [label="gini = 0.408\nsamples = 2781\nvalue = [1174.444, 2937.256]"] ;
54 -> 66 ;
67 [label="X[8] <= 153.5\ngini = 0.392\nsamples = 24003\nvalue = [9895.871, 27075.791]"] ;
19 -> 67 ;
68 [label="X[1] <= 30.5\ngini = 0.467\nsamples = 7878\nvalue = [3632.741, 6131.522]"] ;
67 -> 68 ;
69 [label="gini = 0.481\nsamples = 3847\nvalue = [1814.946, 2700.644]"] ;
68 -> 69 ;
70 [label="gini = 0.453\nsamples = 4031\nvalue = [1817.795, 3430.878]"] ;
68 -> 70 ;
71 [label="X[7] <= 17591.5\ngini = 0.354\nsamples = 16125\nvalue = [6263.13, 20944.269]"] ;
67 -> 71 ;
72 [label="X[0] <= 0.5\ngini = 0.392\nsamples = 8512\nvalue = [3511.365, 9586.878]"] ;
71 -> 72 ;
73 [label="gini = 0.374\nsamples = 3600\nvalue = [1442.839, 4356.93]"] ;
72 -> 73 ;
74 [label="gini = 0.406\nsamples = 4912\nvalue = [2068.525, 5229.948]"] ;
72 -> 74 ;
75 [label="X[1] <= 38.5\ngini = 0.314\nsamples = 7613\nvalue = [2751.766, 11357.391]"] ;
71 -> 75 ;
76 [label="X[7] <= 30952.0\ngini = 0.295\nsamples = 4332\nvalue = [1508.371, 6873.996]"] ;
75 -> 76 ;
77 [label="gini = 0.28\nsamples = 1942\nvalue = [654.178, 3239.141]"] ;
76 -> 77 ;
78 [label="gini = 0.308\nsamples = 2390\nvalue = [854.193, 3634.855]"] ;
76 -> 78 ;
79 [label="gini = 0.34\nsamples = 3281\nvalue = [1243.395, 4483.395]"] ;
75 -> 79 ;
80 [label="X[8] <= 27.5\ngini = 0.404\nsamples = 27218\nvalue = [11433.304, 29184.905]"] ;
18 -> 80 ;
81 [label="X[5] <= 3.5\ngini = 0.375\nsamples = 13583\nvalue = [5454.525, 16362.965]"] ;
80 -> 81 ;
82 [label="X[3] <= 30.5\ngini = 0.393\nsamples = 11266\nvalue = [4654.467, 12638.361]"] ;
81 -> 82 ;
83 [label="X[3] <= 26.5\ngini = 0.384\nsamples = 8544\nvalue = [3481.163, 9933.637]"] ;
82 -> 83 ;
84 [label="gini = 0.416\nsamples = 3018\nvalue = [1290.122, 3075.96]"] ;
83 -> 84 ;
85 [label="X[1] <= 54.5\ngini = 0.367\nsamples = 5526\nvalue = [2191.041, 6857.677]"] ;
83 -> 85 ;
86 [label="gini = 0.353\nsamples = 2970\nvalue = [1151.08, 3875.546]"] ;
85 -> 86 ;
87 [label="gini = 0.383\nsamples = 2556\nvalue = [1039.961, 2982.131]"] ;
85 -> 87 ;
88 [label="gini = 0.422\nsamples = 2722\nvalue = [1173.304, 2704.723]"] ;
82 -> 88 ;
89 [label="gini = 0.291\nsamples = 2317\nvalue = [800.058, 3724.604]"] ;
81 -> 89 ;
90 [label="X[8] <= 153.5\ngini = 0.434\nsamples = 13635\nvalue = [5978.779, 12821.939]"] ;
80 -> 90 ;
91 [label="X[1] <= 54.5\ngini = 0.44\nsamples = 10967\nvalue = [4852.202, 10002.989]"] ;
90 -> 91 ;
92 [label="X[9] <= 169.5\ngini = 0.426\nsamples = 5862\nvalue = [2543.204, 5707.252]"] ;
91 -> 92 ;
93 [label="gini = 0.432\nsamples = 3181\nvalue = [1390.414, 3022.926]"] ;
92 -> 93 ;
94 [label="gini = 0.42\nsamples = 2681\nvalue = [1152.79, 2684.326]"] ;
92 -> 94 ;
95 [label="gini = 0.455\nsamples = 5105\nvalue = [2308.999, 4295.737]"] ;
91 -> 95 ;
96 [label="gini = 0.408\nsamples = 2668\nvalue = [1126.577, 2818.95]"] ;
90 -> 96 ;
97 [label="X[1] <= 67.5\ngini = 0.482\nsamples = 27026\nvalue = [12767.873, 18847.394]"] ;
17 -> 97 ;
98 [label="X[5] <= 3.5\ngini = 0.462\nsamples = 14376\nvalue = [6571.415, 11602.162]"] ;
97 -> 98 ;
99 [label="X[1] <= 63.5\ngini = 0.472\nsamples = 11519\nvalue = [5349.104, 8697.542]"] ;
98 -> 99 ;
100 [label="X[8] <= 27.5\ngini = 0.464\nsamples = 6474\nvalue = [2969.445, 5152.437]"] ;
99 -> 100 ;
101 [label="gini = 0.451\nsamples = 3179\nvalue = [1429.733, 2733.28]"] ;
100 -> 101 ;
102 [label="gini = 0.475\nsamples = 3295\nvalue = [1539.712, 2419.157]"] ;
100 -> 102 ;
103 [label="gini = 0.481\nsamples = 5045\nvalue = [2379.659, 3545.105]"] ;
99 -> 103 ;
104 [label="gini = 0.417\nsamples = 2857\nvalue = [1222.31, 2904.62]"] ;
98 -> 104 ;
105 [label="X[7] <= 30945.5\ngini = 0.497\nsamples = 12650\nvalue = [6196.459, 7245.232]"] ;
97 -> 105 ;
106 [label="gini = 0.5\nsamples = 4527\nvalue = [2274.238, 2186.624]"] ;
105 -> 106 ;
107 [label="X[8] <= 26.5\ngini = 0.492\nsamples = 8123\nvalue = [3922.221, 5058.608]"] ;
105 -> 107 ;
108 [label="gini = 0.483\nsamples = 4432\nvalue = [2100.437, 3043.324]"] ;
107 -> 108 ;
109 [label="gini = 0.499\nsamples = 3691\nvalue = [1821.784, 2015.284]"] ;
107 -> 109 ;
110 [label="gini = 0.111\nsamples = 9922\nvalue = [5604.963, 350.839]"] ;
2 -> 110 ;
}
